<?xml version="1.0"?>
<opencv_storage>
<cascade>
  <stageType>BOOST</stageType>
  <featureType>HAAR</featureType>
  <height>24</height>
  <width>24</width>
  <stageParams>
    <boostType>GAB</boostType>
    <minHitRate>9.9500000476837158e-01</minHitRate>
    <maxFalseAlarm>5.0000000000000000e-01</maxFalseAlarm>
    <weightTrimRate>9.4999998807907104e-01</weightTrimRate>
    <maxDepth>1</maxDepth>
    <maxWeakCount>100</maxWeakCount></stageParams>
  <featureParams>
    <maxCatCount>0</maxCatCount>
    <featSize>1</featSize>
    <mode>BASIC</mode></featureParams>
  <stageNum>9</stageNum>
  <stages>
    <!-- stage 0 -->
    <_>
      <maxWeakCount>3</maxWeakCount>
      <stageThreshold>-1.0525677204132080e+00</stageThreshold>
      <weakClassifiers>
        <_>
          <internalNodes>
            0 -1 16 -1.1842907965183258e-01</internalNodes>
          <leafValues>
            8.9473682641983032e-01 -7.9272729158401489e-01</leafValues></_>
        <_>
          <internalNodes>
            0 -1 6 -2.9821753501892090e-02</internalNodes>
          <leafValues>
            6.5852850675582886e-01 -8.9798027276992798e-01</leafValues></_>
        <_>
          <internalNodes>
            0 -1 1 -1.1884037405252457e-02</internalNodes>
          <leafValues>
            6.3813990354537964e-01 -7.8605568408966064e-01</leafValues></_></weakClassifiers></_>
    <!-- stage 1 -->
    <_>
      <maxWeakCount>3</maxWeakCount>
      <stageThreshold>-1.1948219537734985e+00</stageThreshold>
      <weakClassifiers>
        <_>
          <internalNodes>
            0 -1 17 -5.9051055461168289e-02</internalNodes>
          <leafValues>
            7.8034681081771851e-01 -8.2230621576309204e-01</leafValues></_>
        <_>
          <internalNodes>
            0 -1 10 -8.7146833539009094e-02</internalNodes>
          <leafValues>
            4.9533748626708984e-01 -8.3949434757232666e-01</leafValues></_>
        <_>
          <internalNodes>
            0 -1 18 2.0439250394701958e-02</internalNodes>
          <leafValues>
            -7.6206183433532715e-01 4.6697860956192017e-01</leafValues></_></weakClassifiers></_>
    <!-- stage 2 -->
    <_>
      <maxWeakCount>3</maxWeakCount>
      <stageThreshold>-8.2086575031280518e-01</stageThreshold>
      <weakClassifiers>
        <_>
          <internalNodes>
            0 -1 21 7.6445597223937511e-03</internalNodes>
          <leafValues>
            -7.1282052993774414e-01 1.</leafValues></_>
        <_>
          <internalNodes>
            0 -1 3 1.1340901255607605e-02</internalNodes>
          <leafValues>
            -7.9915726184844971e-01 6.9872498512268066e-01</leafValues></_>
        <_>
          <internalNodes>
            0 -1 8 -1.9943697843700647e-03</internalNodes>
          <leafValues>
            6.9111204147338867e-01 -7.5574821233749390e-01</leafValues></_></weakClassifiers></_>
    <!-- stage 3 -->
    <_>
      <maxWeakCount>2</maxWeakCount>
      <stageThreshold>-2.9846176505088806e-01</stageThreshold>
      <weakClassifiers>
        <_>
          <internalNodes>
            0 -1 12 -3.7770930211991072e-03</internalNodes>
          <leafValues>
            7.5324672460556030e-01 -7.5912410020828247e-01</leafValues></_>
        <_>
          <internalNodes>
            0 -1 9 8.2166469655930996e-04</internalNodes>
          <leafValues>
            4.6066233515739441e-01 -9.9507176876068115e-01</leafValues></_></weakClassifiers></_>
    <!-- stage 4 -->
    <_>
      <maxWeakCount>3</maxWeakCount>
      <stageThreshold>-9.0410292148590088e-01</stageThreshold>
      <weakClassifiers>
        <_>
          <internalNodes>
            0 -1 13 -1.4826288819313049e-01</internalNodes>
          <leafValues>
            1. -7.9892277717590332e-01</leafValues></_>
        <_>
          <internalNodes>
            0 -1 5 -7.6326669659465551e-04</internalNodes>
          <leafValues>
            -9.3166315555572510e-01 5.6502741575241089e-01</leafValues></_>
        <_>
          <internalNodes>
            0 -1 22 2.1510627120733261e-02</internalNodes>
          <leafValues>
            -6.7020756006240845e-01 9.1498237848281860e-01</leafValues></_></weakClassifiers></_>
    <!-- stage 5 -->
    <_>
      <maxWeakCount>3</maxWeakCount>
      <stageThreshold>-1.0025984048843384e+00</stageThreshold>
      <weakClassifiers>
        <_>
          <internalNodes>
            0 -1 15 2.6094703935086727e-03</internalNodes>
          <leafValues>
            -7.9892277717590332e-01 1.</leafValues></_>
        <_>
          <internalNodes>
            0 -1 19 -2.2350775543600321e-04</internalNodes>
          <leafValues>
            7.1203029155731201e-01 -8.3883857727050781e-01</leafValues></_>
        <_>
          <internalNodes>
            0 -1 11 5.4684281349182129e-04</internalNodes>
          <leafValues>
            6.3516300916671753e-01 -9.6681541204452515e-01</leafValues></_></weakClassifiers></_>
    <!-- stage 6 -->
    <_>
      <maxWeakCount>2</maxWeakCount>
      <stageThreshold>-1.3570062816143036e-01</stageThreshold>
      <weakClassifiers>
        <_>
          <internalNodes>
            0 -1 20 -2.5177416391670704e-03</internalNodes>
          <leafValues>
            7.8743958473205566e-01 -9.3535351753234863e-01</leafValues></_>
        <_>
          <internalNodes>
            0 -1 2 8.7069859728217125e-04</internalNodes>
          <leafValues>
            -9.2314022779464722e-01 8.6128157377243042e-01</leafValues></_></weakClassifiers></_>
    <!-- stage 7 -->
    <_>
      <maxWeakCount>3</maxWeakCount>
      <stageThreshold>-9.6751886606216431e-01</stageThreshold>
      <weakClassifiers>
        <_>
          <internalNodes>
            0 -1 14 1.6925341697060503e-05</internalNodes>
          <leafValues>
            -9.3063580989837646e-01 1.</leafValues></_>
        <_>
          <internalNodes>
            0 -1 7 -4.7268840717151761e-04</internalNodes>
          <leafValues>
            -8.4037452936172485e-01 1.</leafValues></_>
        <_>
          <internalNodes>
            0 -1 4 -1.7026060959324241e-03</internalNodes>
          <leafValues>
            -1. 8.0349147319793701e-01</leafValues></_></weakClassifiers></_>
    <!-- stage 8 -->
    <_>
      <maxWeakCount>1</maxWeakCount>
      <stageThreshold>1.</stageThreshold>
      <weakClassifiers>
        <_>
          <internalNodes>
            0 -1 0 1.5146527439355850e-03</internalNodes>
          <leafValues>
            1. -1.</leafValues></_></weakClassifiers></_></stages>
  <features>
    <_>
      <rects>
        <_>
          0 0 2 1 -1.</_>
        <_>
          1 0 1 1 2.</_></rects>
      <tilted>0</tilted></_>
    <_>
      <rects>
        <_>
          0 0 6 12 -1.</_>
        <_>
          0 0 3 6 2.</_>
        <_>
          3 6 3 6 2.</_></rects>
      <tilted>0</tilted></_>
    <_>
      <rects>
        <_>
          0 12 24 2 -1.</_>
        <_>
          0 12 12 1 2.</_>
        <_>
          12 13 12 1 2.</_></rects>
      <tilted>0</tilted></_>
    <_>
      <rects>
        <_>
          0 14 12 6 -1.</_>
        <_>
          0 14 6 3 2.</_>
        <_>
          6 17 6 3 2.</_></rects>
      <tilted>0</tilted></_>
    <_>
      <rects>
        <_>
          1 0 4 4 -1.</_>
        <_>
          3 0 2 4 2.</_></rects>
      <tilted>0</tilted></_>
    <_>
      <rects>
        <_>
          1 0 8 1 -1.</_>
        <_>
          5 0 4 1 2.</_></rects>
      <tilted>0</tilted></_>
    <_>
      <rects>
        <_>
          1 1 8 13 -1.</_>
        <_>
          5 1 4 13 2.</_></rects>
      <tilted>0</tilted></_>
    <_>
      <rects>
        <_>
          1 4 9 1 -1.</_>
        <_>
          4 4 3 1 3.</_></rects>
      <tilted>0</tilted></_>
    <_>
      <rects>
        <_>
          2 9 11 2 -1.</_>
        <_>
          2 10 11 1 2.</_></rects>
      <tilted>0</tilted></_>
    <_>
      <rects>
        <_>
          3 0 6 2 -1.</_>
        <_>
          6 0 3 2 2.</_></rects>
      <tilted>0</tilted></_>
    <_>
      <rects>
        <_>
          3 0 19 10 -1.</_>
        <_>
          3 5 19 5 2.</_></rects>
      <tilted>0</tilted></_>
    <_>
      <rects>
        <_>
          3 1 18 1 -1.</_>
        <_>
          9 1 6 1 3.</_></rects>
      <tilted>0</tilted></_>
    <_>
      <rects>
        <_>
          3 5 2 8 -1.</_>
        <_>
          4 5 1 8 2.</_></rects>
      <tilted>0</tilted></_>
    <_>
      <rects>
        <_>
          6 0 6 16 -1.</_>
        <_>
          6 8 6 8 2.</_></rects>
      <tilted>0</tilted></_>
    <_>
      <rects>
        <_>
          6 15 1 6 -1.</_>
        <_>
          6 17 1 2 3.</_></rects>
      <tilted>0</tilted></_>
    <_>
      <rects>
        <_>
          6 21 16 2 -1.</_>
        <_>
          6 21 8 1 2.</_>
        <_>
          14 22 8 1 2.</_></rects>
      <tilted>0</tilted></_>
    <_>
      <rects>
        <_>
          8 4 9 15 -1.</_>
        <_>
          8 9 9 5 3.</_></rects>
      <tilted>0</tilted></_>
    <_>
      <rects>
        <_>
          8 7 8 12 -1.</_>
        <_>
          8 11 8 4 3.</_></rects>
      <tilted>0</tilted></_>
    <_>
      <rects>
        <_>
          9 13 12 9 -1.</_>
        <_>
          9 16 12 3 3.</_></rects>
      <tilted>0</tilted></_>
    <_>
      <rects>
        <_>
          9 20 3 4 -1.</_>
        <_>
          9 22 3 2 2.</_></rects>
      <tilted>0</tilted></_>
    <_>
      <rects>
        <_>
          14 18 9 6 -1.</_>
        <_>
          14 20 9 2 3.</_></rects>
      <tilted>0</tilted></_>
    <_>
      <rects>
        <_>
          16 16 8 1 -1.</_>
        <_>
          20 16 4 1 2.</_></rects>
      <tilted>0</tilted></_>
    <_>
      <rects>
        <_>
          18 13 6 6 -1.</_>
        <_>
          21 13 3 6 2.</_></rects>
      <tilted>0</tilted></_></features></cascade>
</opencv_storage>
